/* Real weights: models/nanomodel trained 4000 steps on the course corpus (loss 2.9 -> 0.03). Train offline, run the weights - the llama2.c workflow. */
window.NANO_W = {"config":{"vocab":18,"block_size":32,"d":8,"hidden":16},"chars":["\n"," ",".","a","c","d","e","f","h","i","l","m","n","o","p","r","s","t"],"tok_emb":[[-2.556613,-0.331266,-0.566648,-1.907101,-1.227326,0.671353,1.125028,0.548852],[-0.285751,0.827456,-1.808549,0.120133,1.730313,-0.062947,0.198279,1.174655],[-0.462051,-0.493239,1.483856,-1.749716,-0.284367,-1.853116,-1.026811,0.115614],[-0.73543,1.512203,1.27855,0.86014,1.19357,-0.654572,-1.038164,0.076982],[0.31991,-0.289766,1.055457,0.704582,-1.626654,1.084438,-0.646967,0.852072],[-0.367001,0.157135,1.037044,0.116337,0.201876,0.627822,-0.136516,-1.320478],[1.145349,-0.281077,-0.564649,0.092367,-0.794777,-0.062168,1.096637,-1.590865],[1.446073,-0.654602,0.186163,0.31832,1.19797,-0.302072,-0.417366,-1.57462],[-0.895561,-0.141912,0.310699,-0.586776,-1.769361,0.826647,-1.054121,-1.388687],[-0.38076,1.46652,1.114855,-1.684571,0.581099,-0.403085,1.727884,0.540847],[1.113362,-0.016872,-0.261255,-0.225005,-0.700151,-0.865092,-0.215545,-0.876003],[-0.262232,-1.514954,0.639432,-0.015498,-0.265203,-0.234533,-0.244871,0.413794],[-0.855147,0.251557,-1.611325,1.133325,-0.516135,0.878663,1.485186,-1.365699],[0.101833,-1.326887,-0.989055,-0.392248,0.630502,-1.251655,1.46947,-0.053219],[0.635599,-1.075401,-0.416226,1.071458,-0.006558,1.165028,-0.821534,1.166938],[1.271716,-0.69114,-0.315244,1.013422,1.39149,0.546979,-0.313154,1.74801],[0.205879,1.325574,0.396842,1.283193,0.626095,0.363696,0.641221,-0.859984],[-0.179141,-1.723917,0.260253,-0.384056,-0.86054,-0.130475,-0.913733,1.50434]],"pos_emb":[[0.540122,0.894707,-1.376944,-0.271799,-0.422393,-0.393987,-0.36468,0.031561],[0.556375,1.041473,-0.805875,-0.368334,-0.007843,-0.222341,-0.215517,0.10468],[0.487753,0.668117,-0.912364,-0.096473,-0.242851,-0.289744,-0.311693,0.129858],[0.721247,0.384594,-0.726002,-0.035143,-0.328763,-0.350316,-0.139351,0.321413],[0.578752,0.340104,-0.729341,0.038867,-0.180009,-0.257113,-0.07387,0.40331],[0.411036,0.286317,-0.648495,-0.150002,0.15479,-0.174961,-0.164263,0.196783],[0.464827,0.20985,-0.564162,-0.013548,0.001001,-0.147908,-0.018669,0.218272],[0.323648,0.182484,-0.471163,-0.027938,0.042783,-0.129338,-0.059028,0.190061],[0.293037,0.105402,-0.450551,0.038787,0.148342,-0.16909,0.069952,0.157925],[0.005514,0.106424,-0.405611,-0.00629,0.186716,-0.093244,0.046498,0.075425],[0.010975,-0.014928,-0.340666,-0.008329,0.193126,-0.006468,-0.050088,0.010271],[-0.051337,-0.011775,-0.245218,0.013556,0.272632,-0.016345,-0.024367,-0.081295],[-0.039889,-0.143933,-0.192696,0.09924,0.281171,0.027595,-0.024766,0.008407],[-0.141118,-0.160742,-0.153223,-0.040468,0.253466,0.084818,-0.108921,-0.048468],[-0.380675,-0.039192,0.010311,-0.048813,0.239827,0.004137,-0.010767,-0.126486],[-0.445288,0.015605,0.156618,-0.010516,0.143589,0.112099,0.060476,-0.114836],[-0.452789,0.04613,0.159212,0.015601,-0.105653,0.205207,0.0922,-0.105347],[-0.408249,-0.02436,0.259139,0.060022,-0.0268,0.118008,0.12483,-0.063533],[-0.652395,-0.039008,0.236193,-0.108376,-0.025976,0.094598,0.050189,-0.245829],[-0.337768,-0.22346,0.393908,0.041013,-0.029879,0.263739,0.094774,-0.061641],[-0.427208,-0.230906,0.494941,0.146338,-0.074654,0.156012,0.052198,-0.010266],[-0.239741,-0.315534,0.597024,0.084989,-0.039256,0.126312,0.05799,-0.092877],[-0.359513,-0.335399,0.623494,0.09885,-0.132885,0.114852,0.026089,-0.097373],[-0.331383,-0.485323,0.57751,0.05768,-0.085145,0.179678,0.168405,-0.113797],[-0.273443,-0.550627,0.683738,0.114038,-0.072614,0.144985,0.071595,-0.183168],[0.014571,-0.637727,0.769479,0.111981,-0.141738,0.227091,0.253943,-0.088106],[-0.147968,-0.548351,0.821429,0.136723,-0.1478,0.161593,0.332142,-0.087396],[-0.225817,-0.697482,0.779981,0.025513,-0.120135,0.233948,0.419507,-0.046997],[-0.309662,-0.885492,0.757177,0.059444,-0.115494,0.313357,0.108374,-0.193394],[-0.156437,-0.923167,0.785243,0.102053,-0.052415,0.305292,0.067238,-0.312625],[0.066096,-1.027653,0.720243,0.188331,0.029154,0.130313,0.293108,-0.43373],[0.354191,-0.557336,0.334462,-0.107328,-0.082361,-0.264248,0.435458,-0.091207]],"attn":{"q":{"W":[[0.305532,-0.016099,0.312977,-0.450632,-0.222359,-0.442356,0.088751,-0.033882],[-0.343391,-0.492462,0.189986,0.008817,0.338854,-0.225734,0.45075,0.335573],[0.364787,0.189118,0.209577,-0.037429,-0.649231,0.314927,-0.141541,0.249092],[0.005606,0.37546,0.162811,0.351097,0.25333,0.123285,-0.249975,-0.252858],[-0.224743,-0.191829,-0.748918,0.010722,-0.321074,-0.199171,0.120732,-0.20273],[0.003555,-0.727223,0.042326,-0.291697,-0.053398,-0.417118,-0.198274,0.40675],[0.205782,-0.235541,0.256921,-0.096105,0.08504,-0.119807,-0.148222,0.154907],[-0.026729,0.311161,-0.004161,0.288686,0.181812,-0.235007,0.105291,-0.253031]],"b":[0.099957,0.988701,-1.10061,-0.282491,-0.235154,0.83926,-0.114351,-0.26252]},"k":{"W":[[0.839453,-0.154791,-0.426827,-0.374323,-0.369371,-0.15175,-0.274457,-0.433446],[-0.546361,-1.318721,1.203029,0.016946,-0.029575,0.174608,0.59132,-0.586582],[1.047612,1.33168,-1.270461,-0.191202,0.035189,-0.903788,-0.860751,0.661772],[-0.360227,-0.133336,-0.140653,-0.126136,0.098842,0.585194,-0.296612,0.208828],[0.332687,1.023796,-0.400402,-0.147943,0.023386,-0.22234,0.179482,0.193514],[0.014759,-0.478843,1.028937,0.258632,-0.192842,-0.189343,0.153873,-0.538472],[0.254098,-0.004009,0.10714,-0.080773,-0.159053,-0.12062,-0.259182,-0.006033],[-0.022344,-0.121569,-0.079513,-0.129335,-0.094771,0.431481,0.239235,0.288262]],"b":[0,0,0,0,0,0,0,0]},"v":{"W":[[-0.192539,0.084847,0.646057,-0.500797,-0.023496,-0.622045,-1.021352,0.209471],[0.850766,-0.038326,0.445498,-0.12348,0.827251,-0.429969,0.636607,-0.567836],[1.320908,-0.296175,0.470418,0.512556,1.328898,-0.102094,-0.44751,0.448216],[0.207231,0.290816,-0.011851,1.025338,0.161014,0.834301,-0.290276,-0.189987],[-0.272638,-0.776005,0.111205,0.23138,0.336696,-0.58852,-0.792827,0.215199],[-0.023665,-0.596441,-1.053291,-0.71719,-0.193831,-0.409714,-0.464601,-0.297881],[-0.184488,0.059594,-0.32651,0.471876,-0.141462,0.62575,0.070223,-0.698117],[-0.323397,-0.797751,-0.324303,0.111868,0.252838,-0.365939,0.200636,-0.06958]],"b":[-0.117188,0.165642,-0.065324,0.050359,0.073415,-0.236427,0.164312,0.193073]},"proj":{"W":[[-0.418355,0.503947,-0.651611,0.160152,-0.259537,-0.506169,0.537811,0.396417],[0.542899,0.131276,-0.888798,-0.163074,-0.076411,-0.599407,0.190293,-0.142225],[-0.276817,0.861608,0.899135,0.224334,-0.026931,-0.696251,0.015897,0.000094],[-0.308284,-0.157324,-0.36235,-0.589714,-0.086536,-0.057338,-0.295912,0.025705],[0.100016,-0.419196,0.712142,0.43974,0.201277,-0.613101,-0.238266,-0.217667],[-0.648958,-0.28726,-0.141012,0.75777,-0.789739,-0.226595,0.535466,-0.567927],[-0.125938,0.662411,-0.035233,-0.488212,-0.358572,-0.329817,-0.234286,-0.081037],[0.154508,0.182213,-0.063858,-0.172517,0.634645,0.052174,0.13406,0.570834]],"b":[0.546529,-0.21177,0.184523,0.078906,-0.140159,0.417921,-0.058393,-0.117817]}},"mlp":{"fc":{"W":[[-0.080583,1.526971,0.325793,0.898764,0.639972,0.530107,0.109419,0.447045],[0.711587,0.513645,0.846332,-0.415402,0.156203,0.708001,-0.174784,-0.421105],[0.295532,-0.320847,1.141599,0.130778,0.538563,-0.337773,-0.119555,-0.228167],[0.470411,-0.872208,-0.265922,0.815947,-0.22399,0.885988,-0.639527,-0.853698],[-0.57947,0.227814,-0.355983,-0.656085,1.05028,0.120807,-0.120764,0.912913],[-0.459613,0.184433,-0.846442,-1.050618,0.185978,-0.695326,0.219895,0.170743],[-0.719051,0.617699,0.987358,-1.975153,-0.208423,0.302146,0.686967,-0.508397],[0.381494,0.886869,-0.772788,-0.489506,0.730982,-0.250665,1.356436,-0.039821],[-0.123235,0.483013,0.247756,0.007192,0.749855,-0.414635,0.707691,0.544791],[0.663186,-0.927439,1.243692,0.231118,-0.578303,-0.364045,0.082438,0.863831],[0.140907,-0.186298,-0.535591,-0.027137,0.696014,0.050134,0.921905,-0.35948],[0.311917,0.904598,-0.835357,0.445665,0.589752,-0.712023,0.188247,1.45895],[-0.183149,0.560724,0.640321,-0.361743,-0.653006,0.150581,-0.328802,0.087674],[-0.083051,1.232362,0.518124,0.477114,0.80151,-0.647855,0.130445,-1.031402],[-0.161775,-0.878186,-0.789987,0.044168,-0.128031,0.554742,-0.027969,1.132851],[-1.414698,0.610729,0.691324,-0.288687,-0.979559,0.164679,-0.525184,0.184262]],"b":[0.410862,0.513419,0.023019,0.177047,-0.04807,-0.177301,-0.414474,0.638211,-0.038574,0.347245,-0.157135,0.296781,0.043743,-0.14355,-0.3791,0.146455]},"proj":{"W":[[0.003761,0.787676,0.454141,0.072895,-0.432128,-0.116507,-1.475911,-0.137375,-0.626967,1.344506,-0.061469,0.49184,0.120043,0.000295,-0.215955,-0.062305],[0.986411,-0.632903,-0.737866,0.480717,0.507579,-0.7752,0.542208,0.606907,0.373205,-0.588622,-0.392768,0.192504,-0.025573,0.791831,0.193161,-0.624168],[0.319919,-0.026874,0.184335,0.242512,-0.112114,0.014301,1.04758,-0.684856,0.093565,0.503367,-0.428141,0.342651,0.127922,0.026483,-0.032679,0.690951],[-0.063532,0.468183,0.428631,0.543456,-0.292658,-0.416502,-1.05843,-0.651609,-0.460285,-0.18043,-0.234595,0.298692,-0.153681,0.171162,0.184811,0.469598],[0.709601,0.061303,0.013079,0.598491,0.048285,-0.39604,-0.440095,0.204649,0.001854,0.427728,0.554403,0.819595,-0.819506,0.984197,-0.273231,-0.714152],[0.487372,0.235396,0.011532,-0.754065,-0.332458,-0.017108,0.486742,0.318899,-0.515499,0.598987,-0.370177,-0.532546,0.313774,-1.059024,1.107429,0.166263],[0.608758,-0.940501,-0.008469,-0.413782,-0.975883,0.700206,-0.521238,0.743523,0.329409,0.58954,0.354305,-1.464013,-0.075534,-0.133191,0.467791,-0.502485],[1.266603,0.012279,-0.951014,-1.399562,0.541592,-0.515561,-0.585373,-0.568546,0.705528,0.600738,0.818592,0.358287,-0.348457,-0.934317,0.951531,1.016541]],"b":[0.1866,-0.272416,0.075347,0.065862,-0.176751,0.701292,-0.450103,0.003587]}},"head":{"W":[[-0.551232,-0.467051,0.105482,-0.891789,-0.672331,-1.644044,-0.476182,-0.270734],[1.098999,-0.341613,-0.739057,0.714872,-0.236972,-0.46568,0.430128,-2.394805],[-0.110506,0.00242,0.778207,0.372279,0.910099,0.261518,0.586993,-1.649796],[0.600222,-1.563688,-0.088598,1.024121,-0.868236,1.132373,-0.636224,1.034489],[0.08616,0.471203,-1.234049,0.475734,-0.291737,0.837359,0.586722,0.131274],[0.660983,0.743044,0.890332,-0.382416,0.204391,-1.174069,0.122909,0.837607],[-0.441503,-0.597044,0.600624,0.185332,-2.159753,1.479545,-0.897836,-0.789707],[-0.012494,-1.499817,-0.993927,-0.659556,-0.001808,0.231438,1.010313,0.504732],[-0.525358,-1.059588,-0.019856,-0.077063,-0.827314,-0.723404,-0.181554,0.911465],[0.859828,-0.269006,-0.620889,0.329269,0.809117,0.647796,-1.283728,1.107491],[-1.052487,0.822639,-0.065911,0.661059,0.329385,-0.960974,-0.63068,0.37404],[1.051295,0.238718,0.080147,-0.126677,0.907606,-0.023334,0.434709,-0.171815],[-0.89479,-0.165958,1.68226,-0.601884,-0.636791,-0.421259,-0.317485,0.463295],[-0.991464,0.613667,-0.906004,-0.232683,0.877495,0.020401,0.399989,0.635035],[-0.135375,1.131042,-0.715299,0.415356,0.995211,-0.148252,-0.611806,-0.859934],[0.080365,-0.47349,1.065584,0.29048,0.289328,-0.465315,-1.084845,-1.537837],[-0.089966,0.798087,0.129925,-0.785185,-0.41039,0.9217,1.870724,1.074267],[-1.312664,1.025461,-0.410761,-1.620516,-1.091164,0.295661,0.452518,0.31752]],"b":[-0.296416,-0.107088,-0.774981,0.460512,-0.17716,-0.337804,0.156071,0.485457,-0.482874,1.043719,-0.27365,-0.560147,-0.030997,-0.32044,0.471351,0.330457,0.324666,0.089324]}};
